34 16
16 -0.17845157 0.37877044 -0.25900143 -0.5942225 -0.41287106 0.034148697 -0.16028136 -0.37843844 0.32626256 0.42911828 -0.46691424 0.3672847 0.0779281 -0.0073461784 -0.42567807 -0.20912245
15 -0.35791048 0.11286889 -0.09584072 -0.67779166 -0.42805403 0.20168945 -0.19003338 -0.46019694 0.10872299 0.22177055 -0.3584163 0.32998145 0.08235058 -0.11102967 -0.47332433 -0.13942532
19 -0.13240334 0.19322631 -0.16326952 -0.60470355 -0.42703027 0.070459075 -0.12195533 -0.37507907 0.2609367 0.20855996 -0.42520404 0.2519508 0.17980273 -0.15378559 -0.4731586 -0.19015694
23 -0.28829187 0.3816533 -0.34945443 -0.6393004 -0.45622653 0.185555 -0.1568667 -0.33497328 0.3419495 0.21253267 -0.33197758 0.32692897 0.32367796 -0.28276283 -0.46658045 0.0041817357
21 -0.10792291 0.293287 -0.21566465 -0.5889947 -0.46841314 0.15759212 -0.046497997 -0.43332008 0.45306402 0.30209705 -0.29383633 0.38062787 0.32471272 -0.10019377 -0.36354333 -0.06607639
5 0.12017918 -0.16937695 -0.03321029 0.018965239 -0.34050477 0.01948437 0.36519748 -0.1858867 0.7010611 0.27615988 -0.2785234 0.69623613 0.26558867 -0.42471477 0.5831885 -0.46174008
11 -0.07289567 -0.10839887 0.10502631 0.011950367 -0.29475024 0.028534297 0.14835738 -0.10045321 0.43639892 0.062649556 -0.32590994 0.7870483 0.27998993 -0.4968512 0.4258621 -0.3509628
22 0.3460904 0.1800415 -0.32526115 -0.5455038 -0.2769219 -0.16635932 -0.3184149 -0.2795637 -0.08982477 0.27507684 -0.0036773793 0.3612604 0.45717317 -0.42605484 0.15592492 -0.35009047
18 0.14497538 0.09410187 -0.08251258 -0.60947704 -0.1531041 -0.1921113 -0.32545018 -0.23291829 -0.18043542 0.4399216 -0.26839057 0.39538747 0.59625137 -0.29587677 0.24107061 -0.21228555
29 -0.36681446 0.25263435 0.25145927 0.11310231 0.30025128 -0.269233 -0.16491845 -0.718093 -0.1044329 0.1405039 0.56269956 1.0129929 0.0022155147 -0.46786222 -0.35693085 -0.3758052
7 -0.08205736 -0.14258918 0.014092531 0.18648809 -0.41732237 -0.030031972 0.17904355 -0.08792934 0.6998504 0.11133823 -0.368436 0.60104287 0.1535546 -0.57197016 0.56968296 -0.52462703
6 -0.010115752 -0.06323226 -0.13596004 0.2937996 -0.34561422 0.002051908 0.1274804 -0.13032612 0.6707701 0.26630694 -0.40705565 0.7535125 0.16391137 -0.47322148 0.5061277 -0.4234852
13 0.037895665 0.037184145 -0.10795884 -0.4442196 -0.3073749 -0.23410296 -0.26664633 -0.22413239 -0.121345565 0.34228072 -0.111527316 0.4516409 0.41453806 -0.48954904 0.44129974 -0.3571127
31 -0.33599502 0.25701532 0.23458 0.22557081 -0.10971181 -0.27537572 0.045651287 -0.68350565 -0.2907677 0.118141994 0.57766944 1.0243971 0.20437129 -0.40282744 -0.34894308 -0.24877702
28 -0.24561065 0.25894254 0.65029407 0.21319993 0.1557175 -0.3177241 0.30556154 -0.5513041 -0.23635688 0.17785895 0.5188881 0.98309404 0.2677649 -0.41057366 -0.28438905 -0.47222126
10 -0.17263365 0.23946251 0.38941553 0.08640964 0.07888461 -0.11719693 0.22912914 -0.5247648 -0.18453632 0.116089955 0.36758342 1.128846 0.06329781 -0.3663843 -0.25044513 -0.3906815
27 0.093899995 -0.110795796 -0.20841183 -0.15906072 -0.5933326 0.19219385 0.16203852 -0.55401284 0.22887094 0.37891302 -0.21786985 0.34620494 -0.014860729 -0.023511255 -0.29848492 -0.4124841
30 0.30065644 -0.65952563 -0.30221638 0.26389235 -0.7750762 0.22930853 0.50806284 -0.43770164 -0.15381432 0.39925554 -0.34011552 0.36695337 -0.114641115 -0.35845113 -0.0050623724 -0.71537447
24 0.3247353 -0.5584328 -0.1920366 0.011090584 -0.5554232 0.3537449 0.24026078 -0.37386826 0.06647824 0.54338753 -0.4513935 0.4560806 -0.40497226 -0.21114832 -0.013446311 -0.86015755
26 -0.7351403 -0.94331664 0.17257555 0.48371738 -0.94885063 -1.4888318 0.3658618 -1.2474529 0.3718004 -0.26519853 -0.2158274 -0.16343051 0.8719686 0.20564075 -0.111364685 -0.95439863
25 -0.6999997 -1.0341902 -0.093906775 0.4186072 -0.92408955 -1.306971 0.14104898 -1.0972289 0.1574174 -0.2524519 -0.11107691 -0.2174342 0.6747474 0.021182856 -0.03199307 -1.0187676
9 -0.27734813 -0.2908136 -0.23494714 -0.28591666 0.32294908 0.061462805 -0.0060372655 -0.28761968 0.16785185 -0.40392476 0.11778767 1.119135 -0.0154656125 -0.4430417 -0.16053909 -0.51147395
14 -0.14416717 -0.28296235 -0.13061687 -0.43946293 0.4895047 0.046286903 -0.2042996 -0.21890184 -0.10619828 -0.26984632 -0.028083792 1.1004022 0.186256 -0.4181847 -0.13585325 -0.46675393
20 -0.1388924 -0.11078331 -0.27569768 -0.29063278 0.34678504 -0.03919151 -0.20097971 -0.35145685 0.09188683 -0.14747944 0.21268815 1.0450392 0.27700585 -0.30893493 0.013513774 -0.27287436
2 -0.38096556 -0.28924215 0.31780007 -0.295954 0.3475729 -0.38830683 -0.04338086 0.073172845 -0.6659778 -0.205537 -0.34005576 0.45228866 0.16927765 -0.9537479 -0.6046126 -1.1188
4 -0.32053015 -0.12641318 0.24174206 -0.077184185 0.18319152 -0.24077392 0.15299515 0.121565074 -0.27269563 -0.28660804 -0.20008385 0.50175023 0.04090746 -0.8553757 -0.4990664 -0.93489164
12 -0.032184936 -0.015294843 -0.024812018 -0.53317046 -0.114368856 -0.30073154 -0.3241195 -0.30229896 -0.21532233 0.294032 -0.11654865 0.3902872 0.5905981 -0.3464499 0.038753036 -0.30342665
8 -0.09020926 -0.11125946 -0.123481415 -0.082706064 -0.04754925 -0.1339248 -0.24756664 -0.30556068 -0.092956066 0.15876843 0.09749051 0.6639467 0.26168424 -0.5026732 0.18144731 -0.3708771
33 -0.42657706 -0.02265508 0.6663462 -0.022818007 0.57350975 -0.52377117 0.14964193 0.22758612 -0.42720264 -0.012437977 -0.33286113 0.5999279 0.40267795 -1.2689718 -0.9645257 -1.0167358
3 -0.50574315 -0.28978366 0.391079 -0.22745615 0.29173627 -0.24124709 0.08226022 0.19733359 -0.5756788 -0.2234272 -0.39357364 0.5429735 0.04545803 -1.0415133 -0.5692536 -1.0348732
32 -0.1495025 -0.45045182 -0.12858354 0.07343189 0.26657748 0.17378439 0.27384123 -0.12511335 0.47292513 -0.20857838 -0.36913356 1.0515476 -0.045878425 -0.3634081 -0.046362575 -0.5647497
17 -0.48065048 -0.82118 -0.0641999 0.23674674 -0.70729285 -1.1312847 0.22204508 -1.0209231 0.21860962 -0.13788061 0.016962055 0.07159235 0.82624495 0.2570993 0.06526424 -0.6191062
34 -0.38909316 -0.022446128 0.8687571 0.037136994 0.42023644 -0.5541416 0.48620757 0.2473909 -0.3915998 0.05549306 -0.5200465 0.5565366 0.53767896 -1.1238813 -0.83972275 -0.9321826
1 -0.35678846 -0.1412999 0.6747909 -0.10486489 0.28532967 -0.5038253 0.2235598 0.22256997 -0.4487402 0.00041041808 -0.4215955 0.33377928 0.43137178 -0.99597615 -0.71331185 -0.91523975
